digraph Tree {
node [shape=box, style="filled, rounded", color="black", fontname=helvetica] ;
edge [fontname=helvetica] ;
0 [label="petal width (cm) <= 0.8\ngini = 0.66\nsamples = 99\nvalue = [54, 45, 51]\nclass = setosa", fillcolor="#fefbf9"] ;
1 [label="gini = 0.0\nsamples = 33\nvalue = [54, 0, 0]\nclass = setosa", fillcolor="#e58139"] ;
0 -> 1 [labeldistance=2.5, labelangle=45, headlabel="True"] ;
2 [label="petal width (cm) <= 1.7\ngini = 0.5\nsamples = 66\nvalue = [0, 45, 51]\nclass = virginica", fillcolor="#f0e8fc"] ;
0 -> 2 [labeldistance=2.5, labelangle=-45, headlabel="False"] ;
3 [label="petal length (cm) <= 4.95\ngini = 0.21\nsamples = 36\nvalue = [0, 44, 6]\nclass = versicolor", fillcolor="#54e992"] ;
2 -> 3 ;
4 [label="gini = 0.0\nsamples = 32\nvalue = [0, 43, 0]\nclass = versicolor", fillcolor="#39e581"] ;
3 -> 4 ;
5 [label="petal length (cm) <= 5.35\ngini = 0.24\nsamples = 4\nvalue = [0, 1, 6]\nclass = virginica", fillcolor="#965ae9"] ;
3 -> 5 ;
6 [label="sepal width (cm) <= 2.45\ngini = 0.44\nsamples = 2\nvalue = [0, 1, 2]\nclass = virginica", fillcolor="#c09cf2"] ;
5 -> 6 ;
7 [label="gini = 0.0\nsamples = 1\nvalue = [0, 0, 2]\nclass = virginica", fillcolor="#8139e5"] ;
6 -> 7 ;
8 [label="gini = 0.0\nsamples = 1\nvalue = [0, 1, 0]\nclass = versicolor", fillcolor="#39e581"] ;
6 -> 8 ;
9 [label="gini = 0.0\nsamples = 2\nvalue = [0, 0, 4]\nclass = virginica", fillcolor="#8139e5"] ;
5 -> 9 ;
10 [label="sepal length (cm) <= 6.05\ngini = 0.04\nsamples = 30\nvalue = [0, 1, 45]\nclass = virginica", fillcolor="#843de6"] ;
2 -> 10 ;
11 [label="petal length (cm) <= 4.85\ngini = 0.2\nsamples = 6\nvalue = [0, 1, 8]\nclass = virginica", fillcolor="#9152e8"] ;
10 -> 11 ;
12 [label="gini = 0.0\nsamples = 1\nvalue = [0, 1, 0]\nclass = versicolor", fillcolor="#39e581"] ;
11 -> 12 ;
13 [label="gini = 0.0\nsamples = 5\nvalue = [0, 0, 8]\nclass = virginica", fillcolor="#8139e5"] ;
11 -> 13 ;
14 [label="gini = 0.0\nsamples = 24\nvalue = [0, 0, 37]\nclass = virginica", fillcolor="#8139e5"] ;
10 -> 14 ;
}